function [y1,xf1] = ANN_time_bayesian(x1,xi1)
%MYNEURALNETWORKFUNCTION neural network simulation function.
%
% Generated by Neural Network Toolbox function genFunction, 11-Dec-2017 16:36:38.
%
% [y1,xf1] = myNeuralNetworkFunction(x1,xi1) takes these arguments:
%   x1 = 1xTS matrix, input #1
%   xi1 = 1x50 matrix, initial 50 delay states for input #1.
% and returns:
%   y1 = 1xTS matrix, output #1
%   xf1 = 1x50 matrix, final 50 delay states for input #1.
% where TS is the number of timesteps.

% ===== NEURAL NETWORK CONSTANTS =====

% Input 1
x1_step1.xoffset = 0.284110407845618;
x1_step1.gain = 2.8570684321409;
x1_step1.ymin = -1;

% Layer 1
b1 = [-0.0059790666680241263617;-0.0060404746676077959722;-0.0060375025899508261845;0.0060389100092312327298;0.0060423911388010932699;0.0059123344587233995356;-0.0060477222893247735078;-0.006047266022314034227;-0.0060369806392171947509;0.0060330698509336909766;-0.0060463958564801537077;0.0060441967648071125499;-0.006047113498134895973;-0.0060464087049214888803;-0.0060446301051601900728;-0.0060468479819592744692;-0.0060476744822239494187;-0.4907432972027255258;0.0060467998277081583605;0.0060475165306942395976;0.022390384388782276492;0.0060474336180117846049;-0.006044968866404681028;-0.25538942551667720426;0.014640802590149279774;0.0060466309251027113361;0.0060475799573009667714;-0.0060475711703738520286;0.0060471862982664917677;0.0060465297716115291513;0.0060471446416670918134;0.033045762108960680115;-0.0060475285625124245922;-0.0060477719639232810009;0.0060343211026474717282;-0.0060474775117169881147;0.1182531846465249975;-0.0060459754967065841569;0.0060405540911853379885;-0.0060361607160473590428;0.0059945510058592148955;-0.0059587666704057238795;-0.0060476889578999701302;0.0060458674619773321648;0.030582249762510459873;0.0060469850029624206203;-0.0060419403689489078677;-0.0060477270105145823978;-0.0060476444248159025308;0.0060454642401749549702];
IW1_1 = [-0.0084433143214708000074 0.0057239958774787415285 0.0073840764467370586382 0.007447634970858465521 -0.0038274906974706574166 -0.0071494659155915780621 -0.0096669560495688221236 0.00079641119318352680823 0.0039247907820959757053 0.0096916128347234366952 0.0087206673209757803317 0.015671003893015865438 0.00824640217412205348 0.0073424881736879644978 0.0068690869734050535519 0.000597485221117023701 0.0053499144960086489689 0.0031451269956631884399 -0.0016093051413746174184 -0.0018298347469635888735 0.000547448188134357994 0.0028325013678278921324 0.0028238354145643513975 0.0080202126762681912736 0.013440966346268901077 0.011886308563691277626 0.0087090405759884682163 0.0030681234764708821376 -0.0023602965232280056357 0.0012294505859311588309 -0.0079881211642955519264 0.001419573714089647368 -0.00036226682438118238154 0.0045198172641493688031 0.0079633255386454826485 0.005965743161741605266 0.0021810111766006989691 -0.0036880455473504588325 -0.0057494553759757753564 -0.00048057400272591671141 0.0052248473828093913024 0.0039371752942661524671 0.0030424742476595281748 0.0032567254677918185471 0.0040324735043187984879 0.00026945129187653832532 0.0036877381610131974334 0.0094985964880316599984 0.0064465077923115095618 0.0033392642788265276127;-0.0085338222908633923347 0.0057794749653046154775 0.0074562451636556482948 0.0075262298547700270598 -0.0038705941541646916339 -0.0072316004900381909357 -0.0097685974418705735084 0.00080584882270059911974 0.0039688477619515541081 0.0097958714660204247726 0.0088103417882294272206 0.01584012352024850509 0.0083369874400268731418 0.0074218342379575559867 0.0069445276971333335173 0.00060008297272556116939 0.0054050348810662290563 0.0031797122266433303084 -0.0016273302371409145099 -0.0018502565521178607547 0.00055796389964595525038 0.0028622907453017183178 0.0028525279459186911324 0.0081005600551388307062 0.013579637155494341666 0.012013153785635300244 0.0087953761946704435426 0.0030944924440587540798 -0.0023928754378734875055 0.0012371317871629919447 -0.0080763571133356543835 0.001432541031071673512 -0.00037187690342653316987 0.0045621804828287152583 0.0080405234223612578881 0.0060237273513338443834 0.0021995578358064266609 -0.0037304275379220824468 -0.005816304896485067176 -0.00049168981594703271929 0.0052782182064512184194 0.0039748277190496282205 0.0030701576612667336522 0.0032862583958790754154 0.0040701575553016965808 0.00027182064994468892573 0.0037247943736489074092 0.0095961993772621795307 0.0065109992962036570413 0.0033670253487082246746;-0.0085294388347840720266 0.005776791882466955283 0.0074527541779033350949 0.007522423615736837689 -0.0038685054170415375356 -0.0072276187182927888533 -0.0097636760469892690251 0.00080539098569872751357 0.0039667121615589847825 0.0097908212707936495556 0.0088060007100651503664 0.015831931079411165619 0.0083325978618063213654 0.0074179899227817241297 0.0069408719254946656466 0.00059995956073241097674 0.0054023664848319944559 0.0031780365898558316819 -0.0016264568678209642607 -0.0018492668516872502564 0.00055745100297743192634 0.0028608481419756023184 0.0028511392658487227404 0.0080966723321422868348 0.013572924329514290953 0.012007010259365225729 0.0087911997139692374392 0.0030932200089194574442 -0.0023912923916053381579 0.0012367636032994955286 -0.0080720816724687369931 0.0014319143838746337463 -0.00037140759332014293848 0.0045601330086454784987 0.0080367900962947450005 0.0060209232859676402663 0.0021986631548067923914 -0.0037283726881264115174 -0.0058130629949402429571 -0.00049114699611149247472 0.0052756351945626792088 0.0039730074793079932227 0.0030688205035711057025 0.003284831999531354161 0.0040683364720811316523 0.00027170646188884247122 0.0037230016302723556616 0.0095914754854816864499 0.0065078790948239310932 0.0033656869144494190767;0.0085315145705709225649 -0.0057780624749268977638 -0.0074544073486537245146 -0.0075242260199097112106 0.0038694945000361576776 0.0072295041919957512069 0.0097660065337252608547 -0.00080560777955130465251 -0.003967723427245270669 -0.0097932127233677137429 -0.0088080564036633890446 -0.015835810494905445261 -0.0083346764661730715629 -0.0074198103358162964191 -0.006942603048317651411 -0.00060001803156594019691 -0.0054036300884167057929 -0.0031788300607751675611 0.0016268704371026634047 0.0018497355049455163102 -0.00055769383343120648277 -0.0028615312721798264774 -0.0028517968715253494763 -0.0080985133653668894133 -0.013576103152986716133 -0.012009919453733383307 -0.0087931775012651154644 -0.0030938226154105389135 0.0023920419590640756846 -0.0012369380013000830145 0.0080741062330932956981 -0.0014322111430559586465 0.00037162978049521197413 -0.0045611026208118316677 -0.0080385580403091096841 -0.0060222511727790742006 -0.0021990868662277269704 0.003729345710614870562 0.0058145981061347709259 0.00049140398543041311635 -0.0052768583737273586781 -0.0039738694755633375069 -0.0030694537451987479598 -0.0032855075033961511632 -0.0040691988765131845152 -0.00027176054157249557612 -0.0037238505884179037148 -0.0095937124712822570427 -0.0065093566718399881524 -0.0033663207922772996582;0.0085366490160285433964 -0.0057812049751542428019 -0.0074584961380917032259 -0.0075286843419427309718 0.0038719411644242592019 0.0072341683928206146001 0.0097717709947413786131 -0.00080614410556997264344 -0.0039702250303864138406 -0.0097991281884639066385 -0.0088131410774753057152 -0.015845406608211962812 -0.0083398182429378457658 -0.007424313371204249723 -0.0069468852779490481916 -0.00060016242673501364949 -0.0054067555656262047958 -0.0031807928148039539031 0.0016278934605505599766 0.0018508948071121003077 -0.00055829484280924359697 -0.0028632210180190771111 -0.0028534234020820012714 -0.0081030669041838327554 -0.013583965828613523211 -0.012017115524851395073 -0.0087980691839295663975 -0.0030953127370471110805 0.0023938965658828149571 -0.0012373690077057443448 0.0080791142933156617767 -0.0014329450575987395019 0.00037217975351498010965 -0.0045635005915626788986 -0.008042930605798210425 -0.0060255353592838234444 -0.0022001345885418010888 0.0037317527532089024393 0.0058183957079046494734 0.00049204010185156235244 -0.0052798837942494309533 -0.0039760013423371029506 -0.0030710197488067053628 -0.003287178011804529551 -0.0040713316852556075479 -0.00027189425473556105058 -0.0037259503401144635111 -0.0095992454639399326516 -0.0065130112211342844689 -0.0033678881245426009299;0.0083451038118736112909 -0.0056636060634695948798 -0.0073055561691428546126 -0.0073623380222444540638 0.0037807763339796325933 0.0070605294688972520395 0.00955660224178163549 -0.00078620707514357552823 -0.0038770735336787131783 -0.0095785179249810708385 -0.0086232616944381546703 -0.015487572017911229588 -0.0081482220916291765722 -0.0072564581139836492607 -0.0067873242812523356185 -0.00059454862452945102247 -0.0052900448116613221772 -0.0031076283900967950104 0.0015897650910611433629 0.001807705952257660691 -0.00053621267133728924871 -0.0028001690530527699984 -0.0027926543768818853919 -0.007932849171889827522 -0.013290334835634720276 -0.011748676560046581591 -0.0086151181463067771915 -0.003039283143707278978 0.0023251983645932857922 -0.0012209286641236378416 0.0078924743543170080423 -0.0014054348980270970227 0.00035202851853481230849 -0.0044736412577306497451 -0.0078792888338620713229 -0.005902618871924233436 -0.0021607124158150962934 0.0036421644870688781037 0.0056771236232235657015 0.0004687294261269173124 -0.0051668451710665096871 -0.0038961561388266632844 -0.0030122595359442527231 -0.0032244874681707671842 -0.0039913864328807125911 -0.00026685317261240223746 -0.0036474335053137706998 -0.0093925322972417003148 -0.0063763700320384232578 -0.0033088447219357689996;-0.0085445129346107540069 0.0057860169819539753258 0.0074647573743683616476 0.0075355126472931568613 -0.0038756887905046105182 -0.007241313131493598218 -0.0097805995008305689209 0.00080696574895379122056 0.0039740569910557800928 0.0098081885302066049853 0.0088209282244737282491 0.0158601044837037089 0.0083476940421520276492 0.0074312106224789353098 0.006953444504279486689 0.0006003829317981178304 0.0054115422302900093726 0.0031837991368210559646 -0.0016294604265691399296 -0.0018526705683379340612 0.00055921633009988196573 0.0028658089952280072811 0.002855914340499588356 0.0081100401198638486649 0.013596007429702213279 0.012028137087296860222 0.0088055599558502836016 0.0030975937417551308896 -0.002396738493803661843 0.0012380280971440098085 -0.0080867851909976248143 0.0014340687474431324921 -0.00037302314456563197666 0.0045671721705976067729 0.0080496261365511339453 0.0060305642774696206071 0.0022017383108124555929 -0.0037354399843581437279 -0.0058242132788655495354 -0.0004930155919415563949 0.0052845170330180204696 0.0039792656044084859929 0.0030734172624282559382 0.0032897354934348531016 0.004074597203100844417 0.00027209889531604799368 0.0037291657886463331316 0.0096077189313835322654 0.0065186076520743468227 0.0033702869959653506717;-0.0085438398620568106051 0.0057856051720540013425 0.0074642215300363213074 0.0075349282157727683409 -0.0038753680164391969207 -0.0072407015639344360358 -0.0097798438855761105765 0.00080689541474750876241 0.0039737289897503400016 0.009807413045711222202 0.0088202617484123627123 0.015858846470934294393 0.0083470199218189534279 0.007430620267937378641 0.0069528830736532154511 0.00060036408958589288984 0.0054111325548254034234 0.0031835418178883545005 -0.0016293263051259366213 -0.0018525185727629430235 0.00055913741354484162386 0.0028655874921340506942 0.0028557011532934009623 0.0081094433292394300233 0.013594976830892393019 0.012027193749364874231 0.0088049188839554003161 0.0030973985706074479152 -0.0023964951864200016197 0.00123797173496635886 -0.0080861286130005233241 0.0014339725885677951332 -0.00037295090891962547584 0.0045668579749124577419 0.0080490531369464147354 0.0060301339066586379448 0.0022016010942058636748 -0.0037351243657461740549 -0.0058237152980468659749 -0.00049293204226302485618 0.0052841204977652688965 0.0039789862592297092075 0.0030732121056441024862 0.0032895166493319689775 0.004074317759295891829 0.00027208138746268652761 0.0037288906037093883655 0.0096069937285974543739 0.006518128695313330119 0.0033700817550549808099;-0.0085286690517881510315 0.005776320663024159599 0.0074521410776566812326 0.0075217551959369348402 -0.0038681386240702647812 -0.0072269195160772807876 -0.0097628117826656871797 0.00080531059248978916366 0.0039663371462292408565 0.0097899344093249733578 0.0088052383480667437837 0.015830492414864266032 0.0083318270289374617849 0.0074173148343291599519 0.0069402299536197977273 0.00059993786298465036008 0.0054018978728368870906 0.0031777423361283043367 -0.0016263034985838323732 -0.0018490930561583936945 0.00055736097072561741842 0.0028605948035048608946 0.0028508953884340713578 0.008095989567055377964 0.013571745449600046071 0.012005931390913344298 0.0087904662264951180517 0.0030929965062424838972 -0.0023910144460420400085 0.0012366989058309437247 -0.0080713308794793867107 0.0014318043232348783792 -0.00037132521813047411879 0.0045597734049542034546 0.0080361344253786406305 0.0060204308169808928852 0.0021985060014078289595 -0.003728011857356943945 -0.0058124937265095870387 -0.00049105171805788284597 0.0052751815700695829994 0.0039726877901062026058 0.0030685856460771179961 0.0032845814672008183562 0.004068016627504544673 0.00027168640322927867584 0.0037226867842408096695 0.0095906458846572971433 0.0065073311191608685516 0.0033654518065318991989;0.0085229016440055444664 -0.0057727897821621800348 -0.0074475471502789417425 -0.0075167472032459797804 0.0038653906348051548549 0.007221681303017969851 0.0097563363699427509135 -0.00080470834226730630131 -0.0039635276225826977445 -0.0097832898983293350992 -0.0087995263402752613158 -0.015819713748852066298 -0.0083260519948409571211 -0.0074122570487262376751 -0.0069354203453214089206 -0.00059977505806303147047 -0.0053983867966692486093 -0.0031755377748042342041 0.0016251544557387312233 0.0018477910002729876823 -0.00055668678770493451244 -0.0028586967137136866553 -0.0028490681029059439222 -0.0080908737557305963201 -0.01356291266165215656 -0.011997848257780300771 -0.0087849702633683700997 -0.0030913215014805278495 0.0023889325280090764267 -0.0012362137928249568395 0.0080657059524114407822 -0.0014309795832844116308 0.00037070843032873166236 -0.004557078738445072448 -0.0080312214239453057901 -0.006016740694270784548 -0.0021973282114467838216 0.0037253086448271435956 0.0058082290522366445198 0.00049033831802821378331 -0.0052717827183421687651 -0.0039702922645000011601 -0.003066825674356648667 -0.0032827040219297939222 -0.0040656198689040792468 -0.00027153606190582612462 -0.0037203276827565954533 -0.00958442998764617686 -0.0065032252241141782351 -0.0033636897092966266433;-0.0085425562372450133258 0.0057848197786603940476 0.0074631995864459389073 0.0075338136378347367317 -0.0038747562720495829815 -0.007239535261783182872 -0.0097784028341153100827 0.00080676128460603212418 0.0039731034669051772459 0.0098059341151050891799 0.0088189906905614696281 0.015856447311013485008 0.0083457343148306082498 0.0074294944055259574608 0.0069518123763494020853 0.00060032813938528392997 0.0054103512499971374503 0.0031830510859512874296 -0.0016290705230243764535 -0.0018522287044326765041 0.00055898693495924200308 0.0028651650599721733073 0.0028552945750945891122 0.008108305158385007913 0.013593011341916759124 0.012025394699606851631 0.0088036962552641463697 0.0030970263262207033475 -0.0023960312066679451994 0.0012378642204031653148 -0.0080848764587051584474 0.001433789193625218273 -0.00037281317330640047691 0.0045662587401522651206 0.0080479603257898203045 0.0060293131131743836135 0.0022013393829119383416 -0.0037345224605236006926 -0.0058227656214048613068 -0.00049277273351245329605 0.0052833642483815813906 0.00397845349438489225 0.0030728208246078836906 0.0032890992627941971829 0.0040737848017630157865 0.00027204799421944205048 0.0037283657821017509616 0.0096056106642877277929 0.0065172152494904359368 0.0033696902969236638796;0.0085393123643621293012 -0.0057828348453909904359 -0.007460616847238303595 -0.0075309969576675683811 0.0038732103661664094539 0.0072365880277327696013 0.0097747610758194738295 -0.00080642235141168707412 -0.0039715227686751191152 -0.0098021967119120024386 -0.0088157784981646985373 -0.01585038441487676697 -0.008342485526570153978 -0.0074266492747348464287 -0.0069491066775075058595 -0.00060023719545559679582 -0.0054083767540075589758 -0.0031818109718987175154 0.0016284241459432662134 0.0018514961975748436395 -0.00055860679870274100069 -0.0028640975181035465205 -0.0028542670666992656439 -0.0081054287232941203689 -0.013588044191207781022 -0.012020848294758152558 -0.0088006063355286680977 -0.0030960854382878896449 0.0023948588774203483261 -0.0012375923687874357346 0.0080817121947563026751 -0.0014333256790265091161 0.00037246525021255607029 -0.0045647442366508125811 -0.0080451984473044191315 -0.0060272387059145454344 -0.0022006778678930298543 0.0037330014611077879175 0.0058203658425398444032 0.00049237031583602432986 -0.005281453044709480231 -0.0039771070039031379204 -0.0030718318701938493974 -0.003288044323498432852 -0.0040724377974647001099 -0.0002719635832739099768 -0.0037270394188608901159 -0.0096021153714149296704 -0.0065149067368118302943 -0.0033687007975929314507;-0.0085436148641818126376 0.0057854675082221343821 0.0074640424031765474286 0.0075347328491196631853 -0.0038752607871885623274 -0.0072404971283112247449 -0.0097795912942559397318 0.00080687190350488345158 0.0039736193449219454552 0.0098071538135115141066 0.0088200389545748103526 0.015858425937400746214 0.0083467945749796223359 0.0074304229222254148529 0.0069526953970827339371 0.00060035778963621094957 0.0054109956059473478945 0.0031834558004301496438 -0.0016292814705790032836 -0.0018524677633068311559 0.00055911103488723973808 0.0028655134469579438342 0.0028556298875600325676 0.0081092438292988174714 0.013594632315719732199 0.012026878406016719772 0.0088047045807792215927 0.0030973333253694842505 -0.0023964138552695557136 0.0012379528918932374958 -0.0080859091300936464242 0.0014339404433850511979 -0.00037292676372621544811 0.0045667529418113948086 0.008048861588979716597 0.0060299900380085327822 0.0022015552228719752204 -0.0037350188604595752247 -0.0058235488329658330331 -0.00049290411528325685404 0.0052839879411036910425 0.0039788928766108918808 0.0030731435229292723352 0.0032894434909746966302 0.0040742243433380372422 0.00027207553454857986552 0.0037287986125353377378 0.0096067513026680297072 0.0065179685856464669377 0.0033700131428785686134;-0.0085425751904282878901 0.0057848313755224350236 0.0074632146760821617415 0.007533830094994148005 -0.0038747653046023546909 -0.0072395524824096458769 -0.0097784241118405099136 0.00080676326503703339049 0.0039731127028569228343 0.0098059559519982786996 0.0088190094583155895225 0.015856482735365533959 0.0083457532971275248668 0.0074295110291964193416 0.0069518281854491553381 0.00060032867035564947862 0.0054103627863192312389 0.0031830583317462666365 -0.0016290742997151724889 -0.0018522329844021766243 0.00055898915659920189215 0.0028651712973444300181 0.0028553005784285293185 0.008108321964119862002 0.013593040363275396554 0.012025421263211384659 0.0088037143081297741104 0.0030970318228396190134 -0.0023960380571649776867 0.0012378658081378711778 -0.0080848949470851867727 0.0014337919016057282424 -0.00037281520677547101391 0.0045662675883404646102 0.0080479764618904773427 0.0060293252327542762314 0.0022013432474015169442 -0.003734531347729734465 -0.005822779643449917629 -0.00049277508547896904743 0.0052833754147931233369 0.0039784613610623440622 0.003072826602243215223 0.0032891054259077613826 0.0040737926713288420341 0.00027204848731840464539 0.0037283735314067767593 0.0096056310859344417458 0.0065172287370530391712 0.0033696960773322956646;-0.0085399515700967359305 0.0057832259939154719713 0.0074611257952776023281 0.0075315519860103142397 -0.0038735149820856356814 -0.0072371687636746421732 -0.0097754786905584114404 0.00080648913489678706896 0.0039718342373242622803 0.0098029331644037855098 0.0088164114700666103286 0.015851579102069225657 0.008343125690249494561 0.0074272099017316170477 0.00694963982678935277 0.00060025512657128443725 0.0054087658339645157748 0.0031820553338713281934 -0.0016285515129878249622 -0.001851640535353716319 0.00055868168863183363063 0.0028643078780395030483 0.0028544695415885007125 0.0081059955414077792396 0.013589022983411481668 0.012021744163711805403 0.0088012152264541222008 0.0030962708610537902597 -0.0023950898621133602864 0.0012376459541431831905 -0.008082335704560973319 0.0014334170207518036853 -0.0003725337913800857363 0.0045650426886360336715 0.0080457427002661226906 0.0060276474868613165795 0.0022008082353450184911 -0.0037333011644765518033 -0.0058208387004476981608 -0.00049244959253048838001 0.0052818296558244338598 0.0039773723448544096373 0.0030720267597754940918 0.0032882522169045153709 0.0040727032427098925488 0.00027198021898538528047 0.0037273007876453333014 0.0096028041336185792493 0.006515361643956872964 0.0033688958055864866303;-0.00854322318671998579 0.0057852278598369459919 0.0074637305754861136414 0.0075343927536964602765 -0.0038750741226977725683 -0.0072401412481975313887 -0.0097791515811684569248 0.00080683097550032811026 0.0039734284758332393331 0.0098067025412660550204 0.0088196511126350119608 0.015857693871556444165 0.0083464022915820858944 0.0074300793827415034451 0.0069523686900717588527 0.00060034682111169065943 0.0054107572038844305856 0.0031833060611903048892 -0.0016292034226113643811 -0.0018523793143545804786 0.00055906511710479024884 0.0028653845486430128651 0.002855505827197081601 0.0081088965364424624854 0.013594032579860342719 0.012026329454826333379 0.0088043315175573618608 0.0030972197431282395136 -0.0023962722769214029814 0.0012379200873158947415 -0.0080855270544200573413 0.0014338844840014787225 -0.00037288473413747951629 0.0045665700969187445618 0.0080485281377622591714 0.006029739588018103065 0.0022014753675238074408 -0.0037348351977409023628 -0.0058232590524448027414 -0.00049285550272353288379 0.0052837571846113279977 0.0039787303135243997851 0.0030730241314730647947 0.0032893161339997722438 0.0040740617217721849033 0.00027206534539989503732 0.0037286384725660577308 0.0096063292843113715774 0.0065176898638361485672 0.0033698936985323175997;-0.0085444424105523206214 0.0057859738332441132749 0.007464701229464572145 0.0075354514110042760539 -0.003875655179897942882 -0.0072412490514489743706 -0.0097805203281504989737 0.00080695837930018184721 0.0039740226231043838598 0.0098081072754093497762 0.0088208583918162036114 0.015859972669836117087 0.0083476234080366931711 0.007431148765387130678 0.0069533856777478624672 0.00060038095779536046048 0.0054114993049214727902 0.0031837721750588017337 -0.0016294463733777175222 -0.0018526546422782479671 0.00055920806087190349544 0.0028657857863088492291 0.0028558920030041330326 0.0081099775889812188157 0.013595899444663786526 0.012028038245002809284 0.0088054927853512213881 0.0030975732923894118941 -0.0023967129996439119795 0.0012380221919884122281 -0.0080867163949979708332 0.0014340586721412801243 -0.00037301557532904897454 0.0045671392498804145449 0.0080495660986842770823 0.0060305191840011795543 0.0022017239337586403357 -0.0037354069138161426905 -0.0058241611003091893484 -0.0004930068371613890825 0.0052844754845458811326 0.0039792363351984771924 0.0030733957666542461966 0.003289712563551437912 0.0040745679236351417529 0.00027209706092009731601 0.0037291369551880814912 0.0096076429455172820959 0.0065185574676945249456 0.0033702654916587938654;0.55355956784552462491 0.12227926369121931705 -0.039959393925468725262 0.012532500238270790488 -0.024954634017006125518 -0.20924788010105274672 -0.047525976148592795345 -0.04973824767345117609 0.0067571301147449627442 0.0026027293780317589146 0.025800170441591337156 -0.077636655329327064479 0.12232586982428728106 -0.093194036036424232616 -0.025618469773824634195 0.020338807079739458505 -0.10836458608562631045 -0.044392576707265672675 -0.069634422226401024303 -0.15187139162285065441 0.035811057649006494685 -0.0087180761322986129874 -0.033020678494183088036 0.077205629423834909453 -0.22327552808348324898 0.13338360212328270737 -0.049670171987621469789 -0.0674009252528069841 -0.044627886337031935637 -0.013775145916305448976 0.26980365313948490025 0.13512088483806480865 0.0092438196949064174723 -0.0033781906522650597714 -0.11373552487343380202 0.11801176205276432685 -0.030846074635496108229 -0.1029048049315222646 -0.10109598560476135143 -0.038192530950590553029 -0.012380080899764323715 -0.10255858567170129947 -0.065563488560366228741 -0.17044059026464516982 -0.032928506218987463328 0.13930267308796917547 0.14800442619744294537 0.022901486078952461301 0.070232797102513816467 0.055360789982371087781;0.0085431521520057240177 -0.0057851843968142616439 -0.0074636740219732261928 -0.0075343310738929481982 0.0038750402692839052386 0.0072400767060360150459 0.0097790718345912540366 -0.00080682355285452834852 -0.0039733938599340531961 -0.0098066206984971995841 -0.0088195807733578088228 -0.015857561104077461112 -0.0083463311471857794255 -0.0074300170784716706995 -0.0069523094385937388509 -0.00060034483164869939346 -0.0054107139671302380279 -0.0031832789045022347185 0.0016291892678472884737 0.0018523632732882224471 -0.00055905678976080920833 -0.002865361171603297407 -0.0028554833274990689025 -0.0081088335510134980366 -0.013593923811345968652 -0.012026229896931462521 -0.0088042638582980954631 -0.0030971991434198577198 0.0023962466006925303187 -0.0012379141375358161843 0.0080854577612661498315 -0.0014338743350751778031 0.0003728771119801210592 -0.0045665369357563790134 -0.0080484676624932183914 -0.0060296941659820938939 -0.0022014608846279439501 0.0037348018888219499008 0.0058232064981572828274 0.00049284668672901210673 -0.0052837153344018044504 -0.0039787008307539352067 -0.0030730024782961002337 -0.0032892930361659894652 -0.0040740322283360141595 -0.00027206349744333046484 -0.0037286094293734182471 -0.0096062527466865953868 -0.0065176393145025459525 -0.0033698720355453213454;0.0085442094042447579855 -0.0057858312723527644331 -0.0074645157300284054741 -0.0075352490907618120686 0.0038755441331409941873 0.0072410373364140767985 0.0097802587471943151082 -0.00080693403064983849817 -0.0039739090742688916794 -0.0098078388156785951263 -0.0088206276694711358011 -0.015859537166824991261 -0.0083473900385599569818 -0.0074309443943788846751 -0.0069531913195992299526 -0.0006003744353848174814 -0.0054113574824367505905 -0.0031836830954927613536 0.0016293999427381723744 0.0018526020238683492056 -0.0005591807406293415432 -0.0028657091057189185666 -0.0028558182013825174177 -0.0081097709908570098092 -0.013595542669424698357 -0.0120277116773631048 -0.0088052708580371799596 -0.0030975057283103958963 0.002396628769789906771 -0.0012380026810670460586 0.0080864890984499847998 -0.0014340253838235714635 0.00037299056785567683307 -0.0045670304814476618202 -0.0080493677369536838218 -0.0060303701977014838309 -0.0022016764323579476881 0.0037352976515913202324 0.0058239887069984168366 0.0004929779128505430057 -0.0052843382111019878561 -0.0039791396312518906297 -0.003073324745521216917 -0.003289636804163404999 -0.0040744711856719123891 -0.00027209100010376890272 -0.0037290416911912251281 -0.0096073918931980657049 -0.006518391661582447795 -0.0033701944418648745183;0.2150062631128336621 0.10755003723190090237 -0.039732904630830907788 -0.029715192452453770278 0.03746815301419983979 0.094935309580403998142 -0.012537167092001835073 0.29407564765278798591 0.15950703332810328705 0.18572714562272860106 0.14131250903092645865 0.012270012768325972569 0.07340933641664711129 -0.11133104529433432428 0.084637718424499561176 0.344315352429395094 0.054929069788302600785 0.14290353678816325456 0.13205982113189337901 0.18496623020447575114 -0.14543865901348126957 -0.0069072418708373715598 -0.091956656433467218181 0.086693607302629260847 -0.07741488139163441029 -0.1279432233313290701 0.12201901980025864347 0.037847181097758933466 -0.033807796875197554387 -0.099483364863526740907 -0.0067170406180937216808 0.065907666060648947837 -0.043316175347273805363 -0.016825253812724972474 0.0013153327447522592149 0.13602823286362558663 0.053135746082137176594 -0.018859973675748792354 0.18531144998823489978 0.12855896306481334745 0.0031962931245568719854 0.066371628665253271095 0.021997871591559643722 0.1037546647984978615 0.17827298104063832307 -0.036344248423188868502 0.16452120259079855424 0.044374505411892875562 -0.097337550596721153506 0.12675078182133733828;0.008544087093789506232 -0.0057857564383638950684 -0.0074644183565483347015 -0.0075351428881127984621 0.0038754858422366269231 0.007240926202690349707 0.0097801214370919452301 -0.00080692124956167942187 -0.0039738494700463982898 -0.0098076978949833935884 -0.0088205065576908540936 -0.015859308561315826197 -0.0083472675377467484004 -0.0074308371154323676899 -0.0069530892967049817352 -0.00060037101134177901264 -0.0054112830363653250526 -0.0031836363356179189776 0.0016293755702534780828 0.0018525744033098569263 -0.00055916640001197302767 -0.0028656688542688388624 -0.0028557794610775295852 -0.0081096625422537316208 -0.013595355389392117448 -0.012027540254403347106 -0.0088051543626384270319 -0.0030974702618079209999 0.0023965845561717299787 -0.0012379924388861501209 0.0080863697854162037981 -0.001434007909848640603 0.00037297744129548287976 -0.0045669733858642105884 -0.0080492636116106432848 -0.0060302919908256352038 -0.0022016514973494287835 0.0037352402975531283184 0.0058238982142163305336 0.0004929627303208823294 -0.0052842661528525224426 -0.0039790888687048272393 -0.0030732874644521274328 -0.0032895970358346598994 -0.0040744204051901215108 -0.00027208781857408152315 -0.0037289916846662274352 -0.0096072601096010134397 -0.0065183046257063165588 -0.0033701571454630837796;-0.0085404512698897816492 0.0057835317688752123713 0.0074615236595410991058 0.0075319858796880105253 -0.0038737531176667311383 -0.0072376227604725494949 -0.0097760396847596381376 0.00080654134410964803143 0.0039720777310957291681 0.0098035088881465119043 0.0088169062935415948995 0.015852513052699440665 0.0083436261425503012445 0.0074276481747435852895 0.0069500566199631698058 0.00060026914061791537824 0.0054090699958869517538 0.0031822463650455139021 -0.0016286510828892118274 -0.0018517533725401493731 0.00055874023938300837726 0.0028644723269411610615 0.0028546278251315605062 0.0081064386466077227589 0.013589788150428312383 0.01202244451058310723 0.0088016912201986565595 0.003096415808455581925 -0.0023952704425134092869 0.0012376878387624393966 -0.0080828231371105705577 0.0014334884251650384986 -0.00037258737937294989992 0.0045652759973826848375 0.0080461681623124458457 0.0060279670454559163353 0.0022009101448456510307 -0.0037335354612804474983 -0.0058212083641186671001 -0.00049251157393576138529 0.0052821240692169854625 0.0039775797703931747851 0.0030721791094755366777 0.0032884147318491502125 0.0040729107487386673192 0.00027199322311052977598 0.0037275051100193602564 0.0096033425694113678378 0.006515717263232709798 0.0033690482440832947297;-0.62751871039789552942 0.10765862834910647217 -0.055282610568663306805 -0.049157279520559184205 -0.049048256600038260544 -0.0063758082757743635843 -0.27150153606766624925 -0.035575860659614925996 -0.15361317717301950503 -0.045135877317608194548 0.064945953382909926699 0.033711663491412025007 0.07499073244372182756 -0.078173576058695057323 -0.086445567369806547431 0.115889664079613805 -0.0030274536218300217641 0.039800392160273659337 -0.021180864372822554714 0.16367442370107393446 -0.042893869666562479959 0.13867318736579806182 0.10347343423565444342 0.17692741422975064025 0.081878575956098528787 -0.066947162388343264827 -0.061415973193415102083 0.056948864055386266836 0.035291109364954970085 0.085621005899517446669 0.093056483987705884697 0.015379379416315517096 -0.12658103708276233212 -0.0048218936105459356961 0.052289055774796630582 0.15357687209772649672 0.029400988188491031239 -0.074261599104631620394 -0.030977304072710695748 0.09399429336850721739 -0.061331234903541642645 0.016424558082426314598 0.09135821540799718421 -0.071761561668341314335 0.12998390003789375702 -0.015568550285122176313 0.050591119720298616258 -0.04336862232770059139 -0.060744502937743138915 0.12634495735578046838;0.004589886598079803183 -0.016421141481195871553 -0.093277362277144643121 0.1012614244983316425 -0.12670109596458872803 -0.12549018131798120312 -0.018190759868868366933 -0.034281718856675781615 -0.036036207615094573153 0.13824262255077776618 -0.049673269391144629636 -0.083711930271108264678 0.065021602676759410189 -0.069519545191360165859 0.16737744630062073581 0.014200062880489149747 0.082370192015358625892 0.10391747232231489384 -0.018357217179511730459 -0.019838601349265433393 -0.050696206779488502125 -0.13881799582751488953 -0.12215466646999843803 -0.11153873219770342462 -0.14585490018296132231 0.0064725803429864147906 0.057591962336074602191 -0.086219675935184175719 -0.2887375290179001186 -0.22546948436966643414 -0.015909386441510471599 0.081255294502541625112 -0.031623019105146678298 -0.18258506159695045423 -0.17960966559689206523 -0.099356455799805953877 -0.058360326811867486996 -0.041012218884578691136 -0.041228537087573888242 -0.025515239009559730066 -0.012353934309210145778 -0.0560675941758593116 -0.13506281551409021757 0.00041750651671110299229 0.10652803768577422117 0.17475697631793676856 0.19029776809638088153 0.10674521545447264448 -0.019651453526534707478 -0.071253072098565281567;0.0085429029960634155633 -0.0057850319484139337001 -0.0074634756582858379631 -0.0075341147304725129483 0.0038749215278777804708 0.0072398503236914980158 0.0097787921213144703148 -0.0008067975179090062024 -0.0039732724442418229302 -0.0098063336332133519552 -0.0088193340562558019541 -0.015857095419363080591 -0.0083460816070384923754 -0.0074297985450815151251 -0.0069521016130727206553 -0.00060033785305210003638 -0.005410562312942057521 -0.0031831836519021377598 0.0016291396197567905267 0.001852307009004002707 -0.00055902758217135672166 -0.0028652791760519370073 -0.0028554044090743227816 -0.0081086126273591536268 -0.013593542302522094306 -0.012025880695301490939 -0.008804026540803453621 -0.0030971268884649153126 0.0023961565418188154886 -0.0012378932677283940346 0.0080852147143152617442 -0.0014338387371821068039 0.00037285037790387229447 -0.0045664206212915892102 -0.0080482555428897165073 -0.0060295348462241346241 -0.002201410084769319167 0.0037346850574729931194 0.0058230221636579046832 0.00049281576536847331461 -0.0052835685434107606054 -0.0039785974185318311036 -0.0030729265285029962705 -0.0032892120191290725832 -0.0040739287785568839909 -0.00027205701557265197415 -0.0037285075592711431139 -0.0096059842884794067325 -0.0065174620108301535223 -0.0033697960508135491042;0.0085443029695511565208 -0.0057858885188056003585 -0.0074645902187668936034 -0.0075353303338723288951 0.0038755887246998250127 0.0072411223519275695615 0.0097803637868939703737 -0.00080694380799370196353 -0.0039739546705306995691 -0.0098079466175267047967 -0.0088207203177055482773 -0.015859712046034271649 -0.0083474837496159293854 -0.0074310264609297885588 -0.006953269365395839223 -0.00060037705458678444857 -0.0054114144322842793605 -0.0031837188659913973933 0.0016294185872724287027 0.0018526231531353582003 -0.00055919171113702633401 -0.0028657398973485972982 -0.0028558478369705665376 -0.0081098539518986920149 -0.013595685935119497176 -0.012027842812866890512 -0.0088053599746664816539 -0.0030975328592986657063 0.0023966625926943115228 -0.0012380105159462101265 0.0080865803708921619314 -0.0014340387510265997437 0.00037300060964599792302 -0.0045670741583163270219 -0.0080494473906788221312 -0.0060304300243343563967 -0.0022016955070000014845 0.0037353415265213587258 0.0058240579325850661344 0.00049298952745456211567 -0.0052843933342731665148 -0.0039791784635112240759 -0.0030733532646771591183 -0.0032896672260100999832 -0.0040745100316148981368 -0.00027209343388636536565 -0.0037290799451805654863 -0.0096074927051172601816 -0.0065184582422945546235 -0.003370222972616175941;-0.0085442900072918402665 0.0057858805880631825405 0.0074645798993303565452 0.0075353190786938443677 -0.0038755825471148458612 -0.0072411105741204701697 -0.0097803492350099358044 0.00080694245346745819072 0.0039739483537548688646 0.0098079316829770210595 0.0088207074825001133278 0.015859687818783860941 0.0083474707671580047202 0.0074310150916697022272 0.0069532585531580691843 0.00060037669173698465439 0.0054114065426245725604 0.0031837139104509198581 -0.0016294160043132280107 -0.0018526202259481240608 0.00055919019130554008506 0.0028657356315679887761 0.002855843731346805435 0.0081098424587328996754 0.013595666087525099322 0.012027824645743707965 0.0088053476287276548351 0.0030975291006649025363 -0.0023966579069545929787 0.0012380094305358387355 -0.0080865677262740194575 0.0014340368991782054958 -0.00037299921847575088878 0.0045670681074647528908 0.008049436355703969842 0.0060304217361420485791 0.0022016928644652822289 -0.0037353354482128199414 -0.0058240483422664400884 -0.0004929879183892425451 0.0052843856976778997778 0.0039791730838143433979 0.0030733493137280998818 0.0032896630114692096587 0.0040745046500247307161 0.00027209309671894844115 0.0037290746455927539262 0.0096074787389422572348 0.0065184490184095724222 0.0033702190200675984436;0.0085437222560690081335 -0.0057855332155443469494 -0.0074641279008895887112 -0.0075348260979799588921 0.0038753119678626509088 0.0072405947056701398801 0.0097797118565869523704 -0.00080688312543761070341 -0.0039736716785318563702 -0.0098072775454775551474 -0.0088201452945381054321 -0.015858626658750360483 -0.0083469021333479383878 -0.0074305171156363288357 -0.0069527849753754644713 -0.00060036079669352265462 -0.0054110609719311168406 -0.0031834968566965089407 0.0016293028701756385838 0.0018524920147293523574 -0.00055912362534629364823 -0.0028655487888566955577 -0.0028556639028535103081 -0.008109339051099444251 -0.013594796753535065212 -0.012027028919952977015 -0.0088048068682328433504 -0.0030973644671949893126 0.0023964526745980717186 -0.0012379618858543955766 0.0080860138896094359978 -0.0014339557863844078905 0.00037293828814014841865 -0.0045668030744413232527 -0.0080489530153509004223 -0.0060300587069135151708 -0.0022015771174617748164 0.003735069218246751116 0.0058236282869024262598 0.00049291744473098678906 -0.005284051210696197147 -0.0039789374484140455773 -0.0030731762577022514113 -0.003289478409721454874 -0.0040742689310767025296 -0.00027207832817452534853 -0.0037288425201528188277 -0.0096068670131046127181 -0.0065180450063853619461 -0.003370045891797744924;0.008542753780401748584 -0.005784940648802618969 -0.0074633568606532326925 -0.0075339851656898307666 0.0038748504156584113317 0.0072397147473967759373 0.0097786246051349019065 -0.00080678192610090702051 -0.003973199730545061252 -0.0098061617143547982756 -0.0088191863008638179261 -0.015856816528221115425 -0.0083459321616622932777 -0.0074296676690293874876 -0.0069519771498924827838 -0.00060033367329961201397 -0.0054104714893970532949 -0.0031831266066835112519 0.0016291098863392547078 0.0018522733132901318849 -0.00055901009076688790503 -0.0028652300701557630036 -0.0028553571458950280371 -0.0081084803190074154766 -0.013593313822246310199 -0.01202567156385000828 -0.0088038844142310640484 -0.0030970836153471625884 0.0023961026077649601011 -0.0012378807685169245911 0.0080850691575561923347 -0.0014338174179340326415 0.00037283436788850942561 -0.0045663509616770559668 -0.0080481285068542858518 -0.0060294394314072390778 -0.002201379660950567984 0.0037346150893272046442 0.0058229117692389928754 0.00049279724774780881823 -0.0052834806322554677196 -0.0039785354860152385287 -0.0030728810427706021273 -0.003289163498649632332 -0.004073866823439726767 -0.00027205313359013848229 -0.0037284465505247714467 -0.0096058235124837076935 -0.0065173558258777141566 -0.003369750543762829384;0.0085436608058722749576 -0.0057854956175014855824 -0.007464078978685097232 -0.007534772740498575129 0.0038752826820061623408 0.0072405388713685219643 0.0097796428702034334662 -0.00080687670418359001053 -0.0039736417329540550669 -0.009807206745396869832 -0.0088200844462731162882 -0.015858511804936810397 -0.0083468405878722225916 -0.0074304632176652807632 -0.0069527337181946998954 -0.00060035907605718221575 -0.0054110235691829525542 -0.0031834733640832271404 0.0016292906252123086092 0.0018524781379341097309 -0.00055911642099285062488 -0.0028655285660390966695 -0.0028556444391324665652 -0.0081092845647164069067 -0.013594702661386156087 -0.012026942795094473435 -0.0088047483388562081119 -0.0030973466477152199541 0.0023964304619372555488 -0.0012379567394916726666 0.008085953945653834643 -0.0014339470070505976051 0.00037293169378135464275 -0.0045667743883215398612 -0.0080489007007460353083 -0.0060300194142408310508 -0.0022015645892903062605 0.0037350404032423182438 0.0058235828229146980803 0.00049290981751754588038 -0.0052840150075199356083 -0.0039789119442216816513 -0.0030731575267216727602 -0.003289458429062921789 -0.0040742434177708751475 -0.00027207672965143774165 -0.0037288173960002067402 -0.0096068008030144556864 -0.0065180012780648869178 -0.0033700271527409980665;0.037107464645415505489 -0.12501566085905543857 -0.034754313171622239209 -0.08950261964113020996 -0.22596788489433825009 -0.25159907070602610668 -0.39893285698350799962 -0.085419971676265346594 0.0010572944491895382851 -0.02933736192340342247 0.044075266399704805809 -0.0076339538612988236746 -0.070483797020139557499 -0.11295751360621601733 -0.15650393327778108765 -0.054489092871103157745 -0.11503960860355214035 -0.058859462679550639264 -0.032829122807742437684 -0.058498307089627436806 -0.094971240574428156256 0.0023968109743350645389 -0.038877484368678383309 0.096193738153479521613 0.064558364861852915451 -0.053878315171682844564 -0.022156541716922113772 -0.04422410587039522778 -0.034668683106563139007 -0.016203503316922666239 -0.14598503420751049453 -0.0031397065029384304061 -0.16902529802863430763 -0.054070286639911549487 -0.073308027331395644866 -0.090939206944676137523 -0.13226418118047819639 -0.27471372513565517348 -0.25662536972501809318 -0.18868505330007809273 -0.080098356399960393692 -0.056094001976960156108 -0.066032134721837595914 -0.030300732799780634441 0.0056645010266880872415 -0.11509925854472720375 0.05237438822052383619 -0.0076141259025783707831 -0.062151439572220815166 0.041202235345465104688;-0.0085442271532643054854 0.0057858421318229278155 0.0074645298603031725801 0.0075352645023030696489 -0.0038755525920034180655 -0.0072410534635528713346 -0.009780278672871343601 0.0008069358853759568467 0.0039739177237176816909 0.0098078592653183405831 0.0088206452445317457683 0.015859570340807659788 0.0083474078152191814872 0.007430959962118153378 0.0069532061246126240089 0.00060037493224661473822 0.0054113682856321626211 0.0031836898810321942119 -0.0016294034795414360454 -0.0018526060320157033707 0.00055918282168384095005 0.0028657149467862393609 0.0028558238231554257218 0.0081097867282960492408 0.013595569846449452253 0.012027736553320275692 0.0088052877631755923499 0.0030975108749829662232 -0.0023966351858609267339 0.0012380041673304839015 -0.0080865064125137681855 0.0014340279195412992692 -0.00037299247273522173228 0.0045670387668154295568 0.0080493828470131062458 0.006030381546625144043 0.0022016800507644244782 -0.0037353059745076373083 -0.005824001838840968566 -0.00049298011608550726826 0.0052843486677864271936 0.0039791469976107945658 0.0030733301555204090363 0.0032896425750984638163 0.0040744785546292907122 0.00027209146178570686259 0.0037290489478494642794 0.0096074110168863288695 0.0065184042917281158347 0.0033701998540724789101;-0.008544586213645866471 0.0057860618161321422312 0.0074648157124173591254 0.0075355762757319420461 -0.0038757237141197665477 -0.0072413797148920197588 -0.0097806817663045712841 0.00080697340651901820936 0.0039740927016206437777 0.0098082729591919722012 0.0088210007850440114163 0.015860241446843025004 0.0083477674356113376608 0.007431274896019001916 0.0069535056288896170476 0.00060038498284779851216 0.0054115868324784962076 0.0031838271518449057576 -0.0016294750287502023263 -0.0018526871165561668419 0.00055922492246127271636 0.0028658331107850490253 0.0028559375505691998384 0.0081101050933733223602 0.013596119633015884762 0.01202823979080767762 0.0088056297501835686242 0.0030976149898314323666 -0.0023967649840221944696 0.0012380342328741280201 -0.0080868566745255169442 0.0014340792162925734745 -0.00037303100959844092506 0.0045672063772240496099 0.0080496885196034064641 0.0060306111323676732036 0.002201753249396539748 -0.0037354743468426486984 -0.0058242674958631102805 -0.00049302468884717906041 0.0052845602045038190392 0.0039792960169080576413 0.0030734395978190827241 0.0032897593189479602295 0.0040746276262380379252 0.00027210080135522837731 0.0037291957484102580649 0.0096077978854992203417 0.006518659796784052364 0.0033703093401524389199;0.0085247468615457979574 -0.0057739195221062330002 -0.0074490170077096528461 -0.0075183494589491899757 0.003866269800948267648 0.0072233571365926717636 0.009758408130128118016 -0.0008049010109142800155 -0.0039644264626194185286 -0.0097854157202360066842 -0.0088013538716070500306 -0.015823162229636780068 -0.0083278996063670847338 -0.0074138752024335103849 -0.00693695908604049713 -0.00059982719173265626987 -0.0053995101486888907871 -0.0031762430876943509479 0.0016255220718244835481 0.0018482075662075009553 -0.00055690241568540110092 -0.0028593039890326375774 -0.0028496527406134206789 -0.0080925105720740918985 -0.013565738675293132973 -0.012000434361774366468 -0.0087867287293771911827 -0.0030918574900328844347 0.0023895985145657204843 -0.0012363690728665877299 0.0080675055459224608717 -0.0014312434760806692566 0.00037090569023820246439 -0.0045579409484370336791 -0.0080327933893186553166 -0.0060179213885580232907 -0.0021977051007056051975 0.0037261734647394905394 0.005809593404891706149 0.00049056647657125479565 -0.0052728701780109703615 -0.0039710587501410139419 -0.003067388826754792984 -0.0032833047651477866198 -0.0040663867622497719412 -0.00027158417282645242949 -0.0037210824884443436875 -0.0095864187555185775835 -0.0065045389213639120615 -0.0033642535895658412341;-0.0085441518445185313246 0.0057857960552552441247 0.0074644699057717115928 0.0075351991114277127801 -0.003875516701227077563 -0.0072409850364586062291 -0.0097801941285946044496 0.00080692801581771838801 0.0039738810242956430427 0.0098077724979009940631 0.0088205706738654771071 0.01585942958425965929 0.0083473323892271269336 0.0074308939085184046516 0.0069531433072493788877 0.0006003728240415519583 0.0054113224478678084717 0.0031836610901269280123 -0.0016293884729584526272 -0.001852589025530760854 0.00055917399184925913134 0.0028656901632477410104 0.0028557999700692024946 0.0081097199546025892924 0.013595454534821733647 0.01202763100511917288 0.0088052160349454747235 0.0030974890376974104425 -0.0023966079626557188452 0.0012379978610991743994 -0.0080864329493010676103 0.0014340171605232644898 -0.00037298439041223713101 0.0045670036121093979253 0.008049318735258747734 0.0060303333933156280308 0.002201664697890657902 -0.0037352706605594107256 -0.0058239461207380913838 -0.00049297076785504193811 0.0052843043002569018915 0.0039791157422529961282 0.0030733072009562841138 0.0032896180890884282703 0.004074447288240390895 0.00027208950287060750363 0.0037290181579657942675 0.0096073298754100564661 0.0065183507022285366167 0.0033701768901087036587;-0.0045437052606608022837 0.082558982662433222366 -0.093241621374879818385 -0.13608638435435466141 -0.12994702828808429862 -0.098208823261217728651 -0.0043352133931929400998 0.20653787058241387942 0.12476344362183108827 0.11354479877356903061 0.022772340023983126539 0.0050509684976212847543 -0.12101379012142067515 -0.29677331480886487425 -0.19267012987325035644 0.048125854395289498211 -0.058385589306754324956 0.0600191786868743693 -0.03198872005573152183 0.083476674776444603765 0.026784986862576916355 0.097793388300125738688 0.048815422781938830332 0.055783801659077883461 -0.070491206493693198132 -0.017544878265102377413 0.02328872951236035313 0.13683483597928938758 0.1139273157961035593 0.038280413918979447341 0.020216149157021232052 0.016267559840165791984 -0.046253213888595580416 0.083892125430959460508 -0.15266508208338500086 -0.021411912345264873941 -0.18465304532977591667 -0.23539986980055491173 -0.071218210654727262532 -0.059304627982873024672 -0.078979557583975526502 -0.032785005977273039279 -0.086444352940669294538 -0.15400684561172700571 -0.15428709441247492884 -0.14130542813885690889 -0.070344362035231242092 -0.058023281313254723712 -0.13663476936612273249 0.0018319032816182263118;-0.0085419361530356067297 0.0057844403643868436832 0.007462705899973530628 0.0075332752148563495928 -0.0038744607586097680289 -0.0072389718650544779971 -0.0097777066973973175701 0.00080669649236954333281 0.003972801299676539423 0.0098052196864516962677 0.0088183766708632635445 0.015855288347536185961 0.0083451132806284245014 0.0074289505366789453447 0.006951295158124370932 0.00060031076530755566722 0.005409973819237504436 0.0031828140286414268595 -0.0016289469628399198126 -0.0018520886789382981583 0.00055891425419053156112 0.0028649609940549452917 0.0028550981652728057818 0.0081077553276343722333 0.013592061857576352712 0.012024525628303382729 0.0088031056212419921819 0.0030968464904580599029 -0.0023958070869861450812 0.0012378122710258775488 -0.0080842715834107126138 0.0014337005962020853058 -0.00037274664913571303564 0.0045659692528185269814 0.0080474324012264064621 0.0060289165969760593472 0.0022012129461040246849 -0.0037342317034731033025 -0.0058223068719073563931 -0.00049269578982054417025 0.005282998919152672064 0.0039781961197212153958 0.0030726317960870093947 0.003288897622356794833 0.0040735273318566814216 0.00027203186106373729129 0.0037281122489183395052 0.0096049425335533213099 0.0065167739785293573793 0.0033695011750245322003;0.0085339394352343268119 -0.005779546663152583183 -0.0074563384515096628458 -0.0075263315731502744566 0.0038706499756199839839 0.0072317069051125257989 0.0097687289604501317125 -0.00080586105909217868853 -0.0039689048367681648358 -0.0097960064295596147727 -0.0088104577972900194327 -0.015840342459092816157 -0.0083371047513639707366 -0.0074219369762773632765 -0.0069446253976091524771 -0.00060008626745711082101 -0.0054051061901910042382 -0.0031797570075634750894 0.0016273535777716590777 0.0018502830019678005811 -0.00055797761145692174444 -0.0028623292975280783916 -0.0028525650559637488746 -0.008100663946352953601 -0.01357981654590089543 -0.01201331796677113789 -0.0087954878009262674188 -0.0030945264423471634599 0.0023929177507988727731 -0.0012371416212208035095 0.0080764713739239664403 -0.0014325577757892619252 0.00037188945079044346967 -0.0045622351939952421676 -0.0080406231848308452881 -0.0060238022818531449659 -0.0021995817404453447269 0.0037304824552573802136 0.0058163915397113300637 0.00049170432863142722688 -0.0052782872328263211528 -0.0039748763588368547783 -0.0030701933906987647141 -0.0032862965096713578177 -0.0040702062166665109455 -0.00027182370073378374527 -0.0037248422805460667563 -0.0095963256150417303864 -0.0065110826765717982195 -0.0033670611087656442464;-0.0085274598322297792685 0.005775580419806402091 0.0074511779573564924928 0.007520705202052846601 -0.0038675624518582632158 -0.0072258211933711293321 -0.0097614541383187879847 0.00080518431101725689188 0.0039657480622847397084 0.0097885412811098068686 0.0088040407731483152909 0.015828232488394742422 0.0083306161753935042968 0.0074162543757542416858 0.0069392215202573022739 0.00059990376368094437513 0.0054011617426279277115 0.0031772801093022887825 -0.001626062579747945781 -0.0018488200521693956904 0.00055721956580294450083 0.0028601968439105865567 0.0028505122857124033132 0.0080949170171732819784 0.01356989357648051911 0.012004236643394776418 0.0087893139908992393844 0.0030926453857236056028 -0.0023905778661209254807 0.0012365972509810546024 -0.0080701515033961921525 0.001431631424874286844 -0.00037119584304660171179 0.0045592084917287049872 0.0080351044247457432956 0.0060196571915350927801 0.0021982591131029420931 -0.0037274450576740567401 -0.0058115995139744799219 -0.00049090207817605339621 0.00527446897892316479 0.0039721855826715234822 0.0030682166954980132599 0.0032841878915403667494 0.0040675141716252924753 0.00027165489032213944315 0.0037221921934892949341 0.009589342679549864995 0.0065064703068214513673 0.0033650824467449649488;0.0084661242399596062236 -0.0057379935726997620057 -0.0074022819534213654333 -0.0074674435839333416082 0.0038383489142795861743 0.0071701498317904913127 0.0096925770266694175059 -0.00079878659392340243487 -0.0039358865650602030406 -0.0097178850960220417715 -0.0087432754265060995402 -0.015713618776625925405 -0.008269221915460754288 -0.0073624792015716975999 -0.0068880913158249935935 -0.00059814972888928255763 -0.0053638108316898195499 -0.0031538406959395809057 0.001613846272200480849 0.0018349788747720851938 -0.00055008368356699568948 -0.0028400095374779533129 -0.0028310704207121979194 -0.0080404767840834834303 -0.013475927575199164732 -0.011918275480128234789 -0.0087308189855880326269 -0.0030747880284236594334 0.0023684859008343875884 -0.00123140204762852562 0.008010350240617225212 -0.0014228474077457589023 0.00036467292778882549713 -0.0045305110389522998057 -0.0079828035023789285091 -0.0059803735816259121286 -0.0021856998720873230778 0.0036987176647159357434 0.0057662854935351098157 0.00048335722387921026917 -0.0052383054241450259167 -0.003946678093733083266 -0.0030494657305534431622 -0.003264184439548053606 -0.0040419870839116418815 -0.0002700507106676983864 -0.0036970850655344516915 -0.0095232074591528985408 -0.0064627742094410271442 -0.0033462854548246792792;-0.0084134227658184505827 0.005705636327613994134 0.0073602009736962693484 0.0074216753784409764463 -0.0038132662797872541802 -0.0071223763923707501811 -0.0096333754029458654872 0.00079330143649215432381 0.003910257744266424848 0.0096571871080533677051 0.0086910317716275397454 0.015615165496827881214 0.0082165074610614872302 0.0073162965029140679396 0.0068441908393576311384 0.0005966043981515925694 0.0053316989003338796649 0.0031337105587518820568 -0.0016033557758747638434 -0.0018230961904068430316 0.0005440093532492479159 0.0028226615292283371156 0.002814350239019569079 0.0079936421572864915785 0.0133951374034502 0.011844417795767879856 0.008680480430090802349 0.0030593705093620326453 -0.0023495861792306371382 0.0012268773707599493501 -0.0079589991379956318701 0.0014152778849359903129 -0.00035912983253002411007 0.0045057858273774746907 0.007937777520704744974 0.0059465530743211206938 0.0021748520487720572614 -0.00367406929307576317 -0.0057274177137729333914 -0.00047694515829663306633 0.0052072035223576932164 0.0039247084246377909184 0.003033297263675802883 0.0032469344652307054536 0.0040199896519508906967 0.00026866347055349508021 0.0036754813274856188918 0.0094663315482410251983 0.0064251778401923252335 0.003330038134224306591;-0.0085444637647662264462 0.0057859868983963754288 0.0074647182297784397259 0.0075354699529443557385 -0.0038756653569620592298 -0.0072412684544479110835 -0.0097805443011131400211 0.0008069606107802385726 0.0039740330294856206217 0.0098081318788176587165 0.0088208795366841973029 0.015860012582190941011 0.0083476447955690407515 0.0074311674952973532857 0.0069534034900230251228 0.00060038155551692714684 0.0054115123024392388501 0.0031837803388984446673 -0.001629450628589832915 -0.0018526594645808256226 0.00055921056472938118591 0.002865792813815130121 0.0028558987666511778149 0.0081099965229247967385 0.013595932141821538697 0.012028068173788729334 0.0088055131241436580825 0.0030975794843338955165 -0.0023967207190903950555 0.0012380239800408351491 -0.0080867372259622507386 0.0014340617228791256287 -0.00037301786723266291664 0.0045671492180658461446 0.0080495842777651826355 0.006030532838013697404 0.002201728287045001068 -0.0037354169273493579781 -0.0058241768996154935634 -0.00049300948803741807738 0.0052844880651513378295 0.0039792451977294987508 0.0030734022754412455847 0.0032897195065783369806 0.0040745767892730547916 0.00027209761636455543059 0.0037291456857719853211 0.0096076659535394362543 0.0065185726631988606672 0.0033702720030361526041;0.0085417767890332476494 -0.0057843428522003099285 -0.0074625790192670614712 -0.00753313683802630564 0.003874384810912148442 0.0072388270712235242357 0.0097775277871926611489 -0.0008066798407686504805 -0.0039727236421619677512 -0.0098050360758280691309 -0.0088182188648058372482 -0.015854990490076784071 -0.0083449536732678603057 -0.0074288107608031219917 -0.006951162231755099799 -0.00060030629931259868112 -0.0054098768177105972452 -0.0031827531042137816725 0.001628915207528012013 0.001852052692064624223 -0.00055889557614819654254 -0.0028649085482916371304 -0.0028550476868897472181 -0.0081076140178409361603 -0.013591817835421841909 -0.01202430227374033482 -0.0088029538244320075513 -0.003096800270443562323 0.0023957494890915766693 -0.0012377989185747813664 0.0080841161288278309133 -0.0014336778258735103763 0.0003727295534495135153 -0.0045658948520685771824 -0.0080472967207898919717 -0.0060288146894133852818 -0.0022011804501845056228 0.0037341569785380663085 0.0058221889729540270836 0.00049267601647510475202 -0.0052829050275467947725 -0.0039781299723511617805 -0.0030725832138487614402 -0.0032888457986962253525 -0.0040734611597815634232 -0.00027202771459351287849 -0.0037280470892783741481 -0.0096047708203583648939 -0.0065166605691450362955 -0.0033694525679637573994;0.058194609981611654381 -0.096186581150465091938 -0.061416198814465756961 -0.025921451260521317927 0.019303059803063508937 -0.11625329865672975882 0.020969640340696142633 0.10717633992944200494 0.042129526339438033711 0.045499059777987925501 0.034594321274960461443 -0.033295077322983583634 0.0029046968055745181307 0.095979116526550597999 0.14779761026631607623 0.095113996499848058042 -0.09329010139280002889 -0.14599190279479229426 -0.032835887663727164609 -0.15985750351044911155 -0.15964988382319397764 -0.16927478166678364135 -0.14432009636412357345 -0.1653745613313204188 -0.17480051619508826799 -0.021645302829526442273 -0.12539012327872062214 -0.013178034275721801222 0.044703486999093725029 -0.045678070340613378952 -0.021210036479877264481 0.061763395121679678934 0.028950424223977772736 0.10193310386621472208 0.018691585738584731713 0.18779670605534160011 0.11083037786600760666 0.084374819710900161862 0.03418950505005022289 -0.046255003878887653024 0.10348793093850937319 -0.034400113920292185732 0.063006719846161421406 0.053002673005192117717 0.0028495577551690908467 0.086586203129689301439 0.10737871631930726024 0.021368830660282139844 0.17599499586612446511 0.090213676833190079019;0.0085434253136076245688 -0.0057853515318394312106 -0.0074638914959788962497 -0.0075345682614676324357 0.0038751704516168331699 0.0072403249013125265884 0.0097793784971826908797 -0.00080685209650042857138 -0.0039735269744819575952 -0.009806935422225349433 -0.0088198512603867955384 -0.015858071657200698001 -0.0083466047309201773369 -0.0074302566676620780683 -0.0069525372884596354714 -0.00060035248171097597286 -0.0054108802324433604228 -0.003183383334724948846 0.0016292436995720908487 0.0018524249587626741547 -0.00055908881281119097734 -0.0028654510672030731634 -0.0028555698491927392069 -0.0081090757588280579921 -0.013594342076533077329 -0.012026612743495715407 -0.0088045240389834720368 -0.0030972783582214422765 0.0023963453385249327242 -0.0012379370166534593625 0.0080857242260552793928 -0.0014339133622296542422 0.00037290642329815921682 -0.0045666644552682317607 -0.0080487002172984056098 -0.0060298688342719768823 -0.0022015165775927819126 0.0037349299774730730823 0.0058234085945291528749 0.00049288058899504339546 -0.0052838762677067585213 -0.0039788142052645091712 -0.0030730857443297611604 -0.0032893818575315670986 -0.00407414564376066754 -0.0002720706036132818236 -0.0037287211137052838489 -0.0096065470690770426998 -0.0065178336997892029336 -0.0033699553389365294494;-0.0085359841355452156092 0.005780798070317606091 0.0074579666974967278106 0.0075281070172883357214 -0.0038716243266482966781 -0.0072335643758224960065 -0.0097710245409661465599 0.00080607464851285490215 0.003969901072843448793 0.0097983621643444197141 0.0088124826578718767206 0.015844163954495008723 0.0083391523941569317691 0.0074237302429843296178 0.006946330738085425803 0.0006001437473246678915 0.0054063508439449025483 0.0031805386448440086007 -0.0016277609820380565739 -0.0018507446792563814805 0.00055821698712063506573 0.0028630022069858324617 0.0028532127833981162784 0.0081024772763586584701 0.013582947683838053621 0.012016183674320049177 0.0087974357784882557809 0.0030951198118600088162 -0.002393656364187741678 0.0012373132251435408312 -0.0080784657629720205835 0.0014328500308544106587 -0.0003721085046595733626 0.0045631901019943426137 0.0080423644276628614841 0.0060251101096745777672 0.0021999989428448649999 -0.0037314410378061625521 -0.0058179039070316157511 -0.00049195769323852756982 0.0052794920345187535196 0.0039757253044579955389 0.0030708169889772890353 0.0032869617218799084164 0.0040710555308307522573 0.00027187694415646660199 0.003725678450079233494 0.0095985289991110372271 0.0065125380040206978446 0.0033676852123361361233;-0.0085445198992178741926 0.005786021243101233287 0.0074647629189550672099 0.0075355186946858407002 -0.0038756921097231390207 -0.007241319459727247991 -0.0097806073195309158053 0.00080696647674545398526 0.0039740603850667967703 0.009808196554529021588 0.0088209351207993516586 0.015860117500991862544 0.0083477010176310935397 0.0074312167311810419651 0.0069534503136996364883 0.00060038312673831538673 0.0054115464693857339915 0.0031838017994326259924 -0.0016294618143935647551 -0.0018526721411169580489 0.00055921714673369516367 0.002865811287226084289 0.00285591654643928489 0.0081100462950990572647 0.013596018093765897469 0.01202814684847274343 0.0088055665892697934649 0.0030975957612265200489 -0.0023967410114884165305 0.0012380286803032874033 -0.0080867919849530005283 0.0014340697424278698886 -0.00037302389207152309228 0.0045671754216796136769 0.0080496320655855206627 0.0060305687306713784759 0.0022017397306142538586 -0.0037354432502446962422 -0.0058242184317675799524 -0.00049301645652650755332 0.005284521136136335201 0.0039792684948862970876 0.0030734193852389505262 0.0032897377578705710305 0.0040746000945900678197 0.00027209907647092251501 0.0037291686360932793307 0.0096077264353670952662 0.0065186126080308652575 0.0033702891196152680482;-0.0085443980705184521124 0.0057859467046446899641 0.0074646659298654143705 0.0075354129103930803796 -0.0038756340481825874572 -0.0072412087629610856487 -0.0097804705505199728 0.00080695374584709210573 0.0039740010152393831153 0.0098080561887340707988 0.0088208144864543019253 0.015859889795568744841 0.0083475789988400900948 0.0074311098744865517265 0.0069533486922356210758 0.00060037971666378198154 0.0054114723167777963389 0.0031837552236119882193 -0.0016294375378316180731 -0.0018526446292213333191 0.00055920286187441760935 0.0028657711943466225926 0.0028558779589145611918 0.0081099382743845278149 0.013595831552040364004 0.012027976100670292534 0.0088054505537082435745 0.0030975604353583423289 -0.0023966969709724888528 0.0012380184792345335851 -0.0080866731414603130329 0.0014340523375572498434 -0.00037301081643488081 0.004567118551839529153 0.0080495283514763812244 0.006030490832683417339 0.0022017148945394347283 -0.0037353861216656279211 -0.0058241282945559772963 -0.00049300133289771435035 0.0052844493620783014598 0.0039792179329542088501 0.0030733822517382551782 0.0032896981469744132967 0.0040745495149329836321 0.00027209590758722345012 0.0037291188269288869268 0.0096075951714809319087 0.006518525915622612292 0.0033702519713439912409;0.0085411819927433928201 -0.0057839789016310601266 -0.0074621054557259397511 -0.0075326203721539008659 0.0038741013517332675321 0.0072382866599641814201 0.009776860036847986532 -0.00080661769269441368872 -0.0039724338022505993259 -0.0098043507845021107133 -0.0088176298808796682582 -0.015853878794940184926 -0.008344357971554547046 -0.0074282890752876157975 -0.0069506661114492997514 -0.0006002896279684772924 -0.0054095147762853127565 -0.0031825257159319004195 0.0016287966872217394306 0.0018519183785598019188 -0.00055882586816612524281 -0.0028647128041347871309 -0.0028548592846527609534 -0.0081070866011723301259 -0.013590907064593538145 -0.012023468644920105863 -0.0088023872654247967834 -0.0030966277573367000965 0.0023955345219318336346 -0.0012377490784824727015 0.0080835359261301562711 -0.0014335928382426092482 0.00037266575162074486128 -0.0045656171601407488647 -0.0080467903124237967483 -0.0060284343335055357374 -0.0022010591609930032185 0.0037338780843659750801 0.00582174894230117531 0.00049260222149558226257 -0.0052825545925336758399 -0.0039778830857048058656 -0.0030724018854462881167 -0.0032886523718936829311 -0.0040732141801087919444 -0.0002720122379903693521 -0.0037278038907894855969 -0.0096041299292140627775 -0.0065162372860040531503 -0.0033692711439448994742];

% Layer 2
b2 = 0.13620915940295491575;
LW2_1 = [-0.045359609141745617367 -0.045841788482404416394 -0.045818437027504189951 0.045829494859774971838 0.045856846883884166965 0.044836326860490188784 -0.045898738908024955263 -0.045895153387280188118 -0.045814336242223377416 0.045783611998840852142 -0.045888315388819662932 0.045871034902188176363 -0.04589395480177569514 -0.045888416354410224707 -0.04587444003081032895 -0.045891868297129753684 -0.045898363219883817066 0.65805330120950178419 0.045891489888060771341 0.045897121973621751723 0.62003325418351562526 0.045896470414309185892 -0.045877101991966373618 -0.75992364124226219335 -0.50232304392117277381 0.045890162609011533879 0.045897620404749546463 -0.045897551353586807377 0.045894526888821798871 0.045889367721803485389 0.045894199537647097087 0.54184186435082304367 -0.04589721652430994725 -0.04589912927215036853 0.045793441901250453441 -0.04589681534755241793 -0.49681191185466055948 -0.045885012133897160047 0.045842412529635508112 -0.045807894483862431068 0.045481133991249492188 -0.045200349550014840005 -0.045898476975748177253 0.045884163184387802281 -0.45687680255581120115 0.045892945047216131271 -0.045853304967752354926 -0.04589877600912811717 -0.045898127016431249092 0.04588099463783661125];

% Output 1
y1_step1.ymin = -1;
y1_step1.gain = 2.8570684321409;
y1_step1.xoffset = 0.284110407845618;

% ===== SIMULATION ========

% Dimensions
TS = size(x1,2); % timesteps

% Input 1 Delay States
xd1 = mapminmax_apply(xi1,x1_step1);
xd1 = [xd1 zeros(1,1)];

% Allocate Outputs
y1 = zeros(1,TS);

% Time loop
for ts=1:TS
    
    % Rotating delay state position
    xdts = mod(ts+49,51)+1;
    
    % Input 1
    xd1(:,xdts) = mapminmax_apply(x1(:,ts),x1_step1);
    
    % Layer 1
    tapdelay1 = reshape(xd1(:,mod(xdts-[1 2 3 4 5 6 7 8 9 10 11 12 13 14 15 16 17 18 19 20 21 22 23 24 25 26 27 28 29 30 31 32 33 34 35 36 37 38 39 40 41 42 43 44 45 46 47 48 49 50]-1,51)+1),50,1);
    a1 = tansig_apply(b1 + IW1_1*tapdelay1);
    
    % Layer 2
    a2 = b2 + LW2_1*a1;
    
    % Output 1
    y1(:,ts) = mapminmax_reverse(a2,y1_step1);
end

% Final delay states
finalxts = TS+(1: 50);
xits = finalxts(finalxts<=50);
xts = finalxts(finalxts>50)-50;
xf1 = [xi1(:,xits) x1(:,xts)];
end

% ===== MODULE FUNCTIONS ========

% Map Minimum and Maximum Input Processing Function
function y = mapminmax_apply(x,settings)
y = bsxfun(@minus,x,settings.xoffset);
y = bsxfun(@times,y,settings.gain);
y = bsxfun(@plus,y,settings.ymin);
end

% Sigmoid Symmetric Transfer Function
function a = tansig_apply(n,~)
a = 2 ./ (1 + exp(-2*n)) - 1;
end

% Map Minimum and Maximum Output Reverse-Processing Function
function x = mapminmax_reverse(y,settings)
x = bsxfun(@minus,y,settings.ymin);
x = bsxfun(@rdivide,x,settings.gain);
x = bsxfun(@plus,x,settings.xoffset);
end
